// #### Created By: http://www.cufonfonts.com ####
/*!
 * The following copyright notice may not be removed under any circumstances.
 * 
 * Copyright:
 * ©2006 Patrick Broderick/www.rotodesign.com
 */
Cufon.registerFont({"w":939,"face":{"font-family":"Salaryman","font-weight":400,"font-stretch":"normal","units-per-em":"1000","panose-1":"0 0 4 0 0 0 0 0 0 0","ascent":"800","descent":"-200","bbox":"7.68167 -786 1206.94 104","underline-thickness":"20","underline-position":"-123","unicode-range":"U+0020-U+007A"},"glyphs":{" ":{"w":273},"!":{"d":"40,-689r0,400v0,19,9,28,28,28v19,0,28,-9,28,-28r0,-400v0,-19,-9,-28,-28,-28v-19,0,-28,9,-28,28xm68,-183v-43,-2,-28,57,-28,94v0,19,9,28,28,28v43,2,28,-58,28,-95v0,-18,-9,-27,-28,-27","w":133},",":{"d":"69,-189v-48,-1,-11,74,-38,102v-16,17,-41,68,5,70v24,0,30,-25,41,-39v22,-29,21,-60,20,-105v0,-19,-9,-28,-28,-28","w":133},"-":{"d":"58,-365r600,0v18,0,27,-9,27,-28v0,-19,-9,-28,-27,-28r-600,0v-19,0,-28,9,-28,28v0,19,9,28,28,28","w":723},"\u2010":{"d":"58,-365r600,0v18,0,27,-9,27,-28v0,-19,-9,-28,-27,-28r-600,0v-19,0,-28,9,-28,28v0,19,9,28,28,28","w":723},"\/":{"d":"65,-75r600,-600v16,-15,8,-47,-19,-47v-8,0,-15,3,-20,8r-600,600v-16,16,-7,50,20,47v7,0,14,-3,19,-8","w":691},"0":{"d":"38,-400v0,176,152,328,328,328v176,0,328,-152,328,-328v0,-176,-152,-328,-328,-328v-176,0,-328,152,-328,328xm366,-128v-145,0,-272,-127,-272,-272v0,-146,126,-272,272,-272v147,0,272,125,272,272v0,146,-126,272,-272,272","w":731},"1":{"d":"37,-700r0,600v0,19,9,28,28,28v19,0,28,-9,28,-28r0,-600v0,-19,-9,-28,-28,-28v-19,0,-28,9,-28,28","w":135},"2":{"d":"364,-672v128,0,273,50,273,155v0,29,-18,52,-53,69v-84,39,-291,78,-381,123v-97,48,-168,118,-166,253r627,0v19,0,28,-9,28,-28v0,-19,-9,-28,-28,-28r-568,0v41,-147,184,-173,353,-219v84,-23,141,-40,171,-57v48,-27,72,-65,72,-113v0,-139,-168,-211,-328,-211v-157,0,-327,89,-327,228v0,19,9,28,27,28v19,0,28,-9,28,-28v3,-108,146,-172,272,-172","w":731},"3":{"d":"697,-250v3,-67,-71,-125,-149,-150v69,-22,154,-85,149,-150v-9,-119,-183,-178,-328,-178v-146,0,-323,58,-328,178v0,19,9,28,28,28v19,0,28,-9,28,-28v0,-31,26,-58,76,-83v102,-51,289,-50,392,0v101,49,100,116,0,166v-76,38,-182,41,-296,39v-19,0,-28,9,-28,28v2,50,83,28,128,28v77,0,142,13,196,39v101,48,101,117,0,166v-103,50,-290,51,-392,0v-50,-25,-76,-52,-76,-83v0,-19,-9,-28,-28,-28v-19,0,-28,9,-28,28v4,119,183,178,328,178v146,0,322,-58,328,-178","w":743},"4":{"d":"740,-300v0,-44,-62,-23,-100,-28r0,-372v0,-19,-9,-28,-28,-28v-19,0,-28,9,-28,28r0,372r-467,0r122,-363v6,-19,-10,-38,-27,-37v-13,0,-22,6,-26,19r-146,437r544,0r0,172v0,19,9,28,28,28v19,0,28,-9,28,-28r0,-172v38,-4,100,16,100,-28","w":757},"5":{"d":"693,-294v0,-139,-171,-228,-328,-228r-205,0r0,-145r505,0v19,0,28,-9,28,-27v0,-19,-9,-28,-28,-28r-561,0r0,255r261,0v126,-4,273,65,273,173v0,227,-545,230,-545,0v0,-19,-9,-28,-28,-28v-18,0,-27,9,-27,28v0,138,170,227,327,227v159,0,327,-89,328,-227","w":736},"6":{"d":"697,-294v0,-139,-170,-228,-328,-228v-111,0,-210,38,-272,100v-15,-212,220,-289,411,-220v43,16,75,39,100,66v15,17,52,10,49,-19v0,-7,-2,-13,-7,-18v-55,-66,-162,-109,-281,-109v-191,0,-330,110,-328,294r0,134v0,137,171,227,328,227v159,0,327,-89,328,-227xm641,-294v0,228,-544,230,-544,0v0,-107,147,-173,272,-173v126,0,272,65,272,173","w":736},"7":{"d":"59,-722v-18,0,-27,9,-27,28v0,18,9,27,27,27r549,0r-372,557v-12,18,-2,44,23,44v11,0,19,-4,24,-13r428,-643r-652,0","w":736},"8":{"d":"703,-244v0,-66,-76,-128,-149,-150v99,-37,149,-87,149,-150v0,-186,-387,-220,-553,-131v-68,36,-103,78,-103,131v0,63,50,113,149,150v-72,22,-156,85,-149,150v19,184,387,219,553,130v68,-36,103,-78,103,-130xm179,-462v-101,-50,-100,-115,0,-165v103,-51,289,-51,392,0v100,50,101,115,0,165v-103,51,-289,51,-392,0xm571,-162v-103,51,-289,51,-392,0v-101,-50,-100,-115,0,-165v103,-51,289,-51,392,0v100,50,101,115,0,165","w":736},"9":{"d":"694,-494v1,-138,-172,-228,-328,-228v-159,0,-327,89,-328,228v0,138,170,227,328,227v112,0,210,-38,272,-100v15,211,-219,291,-410,221v-43,-16,-78,-38,-101,-67v-18,-22,-50,-3,-49,19v0,7,2,13,7,18v55,66,162,109,281,109v193,0,330,-109,328,-294r0,-133xm638,-494v0,228,-544,230,-544,0v0,-107,147,-173,272,-173v126,0,272,65,272,173","w":736},":":{"d":"66,-183v-43,-2,-28,57,-28,94v0,19,9,28,28,28v43,2,28,-58,28,-95v0,-18,-9,-27,-28,-27xm66,-383v-43,-2,-28,57,-28,94v0,19,9,28,28,28v43,2,28,-58,28,-95v0,-18,-9,-27,-28,-27","w":133},";":{"d":"67,-189v-49,-2,-12,74,-38,102v-16,17,-41,68,5,70v24,0,30,-25,41,-39v22,-29,21,-60,20,-105v0,-19,-9,-28,-28,-28xm67,-389v-43,-2,-28,58,-28,95v0,18,9,27,28,27v43,2,28,-57,28,-94v0,-19,-9,-28,-28,-28","w":133},"A":{"d":"1097,-118r-538,-625r-521,625v-14,18,-4,46,23,46v8,0,15,-3,20,-10r158,-190r652,0r164,190v15,18,52,12,49,-17v0,-7,-2,-14,-7,-19xm286,-328r274,-329r284,329r-558,0","w":1142},"B":{"d":"724,-72v95,3,177,-83,177,-178v0,-65,-28,-115,-83,-150v55,-35,83,-85,83,-150v0,-95,-82,-178,-177,-178r-678,0r0,656r678,0xm845,-550v0,65,-56,122,-121,122r-623,0r0,-244r623,0v65,-2,121,57,121,122xm845,-250v0,65,-56,122,-121,122r-623,0r0,-244r623,0v65,-2,121,57,121,122","w":933},"C":{"d":"91,-400v0,-232,340,-356,575,-254v57,25,104,57,141,98v24,26,66,-9,41,-37v-76,-87,-212,-148,-368,-151v-221,-4,-446,142,-445,344v1,271,378,423,654,304v65,-28,117,-65,159,-111v19,-21,1,-46,-21,-46v-8,0,-15,3,-20,9v-67,77,-188,130,-327,133v-190,4,-389,-118,-389,-289","w":904},"D":{"d":"898,-400v0,-187,-135,-328,-328,-328r-528,0r0,656r528,0v193,-5,328,-141,328,-328xm842,-400v0,154,-109,272,-272,272r-472,0r0,-544r472,0v164,3,272,118,272,272","w":930},"E":{"d":"864,-372v19,0,28,-9,28,-28v0,-19,-9,-28,-28,-28r-772,0r0,-244r772,0v19,0,28,-9,28,-28v0,-19,-9,-28,-28,-28r-828,0r0,656r828,0v19,0,28,-9,28,-28v0,-19,-9,-28,-28,-28r-772,0r0,-244r772,0","w":930},"F":{"d":"873,-428r-772,0r0,-244r772,0v19,0,28,-9,28,-28v0,-19,-9,-28,-28,-28r-828,0r0,628v0,19,9,28,28,28v19,0,28,-9,28,-28r0,-272r772,0v19,0,28,-9,28,-28v0,-19,-9,-28,-28,-28","w":930},"G":{"d":"37,-394v0,202,224,344,445,344v127,0,235,-36,322,-107v3,36,-14,92,28,90v18,0,27,-9,27,-27r0,-228r-377,0v-19,0,-28,9,-28,28v0,18,9,27,28,27r322,0r0,34v-67,75,-186,124,-322,127v-190,4,-389,-117,-389,-288v0,-233,339,-355,575,-254v57,24,105,55,140,97v15,18,53,11,49,-18v0,-7,-2,-13,-7,-18v-76,-88,-211,-149,-368,-152v-220,-4,-445,143,-445,345","w":907},"H":{"d":"865,-717v-19,0,-28,9,-28,28r0,272r-744,0r0,-272v0,-19,-9,-28,-28,-28v-19,0,-28,9,-28,28r0,600v0,19,9,28,28,28v19,0,28,-9,28,-28r0,-272r744,0r0,272v0,19,9,28,28,28v19,0,28,-9,28,-28r0,-600v0,-19,-9,-28,-28,-28","w":922},"I":{"d":"46,-694r0,600v0,18,9,27,27,27v19,0,28,-9,28,-27r0,-600v0,-19,-9,-28,-28,-28v-18,0,-27,9,-27,28","w":149},"J":{"d":"461,-106v-182,0,-373,-51,-372,-200v0,-18,-9,-27,-28,-27v-18,0,-27,9,-27,27v1,187,207,256,427,256v222,0,428,-68,428,-256r0,-388v0,-19,-9,-28,-28,-28v-18,0,-27,9,-27,28r0,388v2,149,-192,200,-373,200","w":922},"K":{"d":"884,-114r-373,-373r366,-183v20,-7,20,-39,2,-48v-9,-5,-18,-6,-27,-1r-760,380r0,-355v0,-19,-9,-28,-28,-28v-19,0,-28,9,-28,28r0,600v0,18,9,27,28,27v19,0,28,-9,28,-27r0,-183r367,-184r385,386v16,16,52,8,48,-20v0,-7,-3,-14,-8,-19","w":922},"L":{"d":"876,-122r-772,0r0,-572v0,-19,-9,-28,-28,-28v-19,0,-28,9,-28,28r0,627r828,0v19,0,28,-9,28,-27v0,-19,-9,-28,-28,-28","w":934},"M":{"d":"455,-145r-428,-641r0,692v0,18,9,27,28,27v18,0,27,-9,27,-27r0,-509r373,559r372,-559r0,509v0,18,9,27,28,27v18,0,27,-9,27,-27r0,-692","w":910},"N":{"d":"859,-722v-19,0,-28,9,-28,28r0,544r-800,-600r0,656v0,18,9,27,28,27v19,0,28,-9,28,-27r0,-545r800,600r0,-655v0,-19,-9,-28,-28,-28","w":922},"O":{"d":"917,-394v0,-200,-226,-345,-444,-345v-220,0,-445,143,-445,345v0,202,224,344,445,344v222,0,444,-143,444,-344xm473,-683v190,0,389,117,389,289v0,171,-200,288,-389,288v-190,0,-388,-117,-389,-288v0,-172,200,-289,389,-289"},"P":{"d":"897,-500v0,-123,-105,-228,-228,-228r-628,0r0,628v0,19,9,28,28,28v19,0,28,-9,28,-28r0,-172r572,0v123,4,228,-106,228,-228xm841,-500v0,92,-80,172,-172,172r-572,0r0,-344r572,0v92,-3,172,80,172,172"},"Q":{"d":"914,-400v0,-202,-224,-344,-445,-344v-221,0,-444,142,-444,344v0,196,212,340,416,344r0,133v0,18,9,27,28,27v19,0,28,-9,28,-27r0,-133v207,-4,417,-149,417,-344xm469,-689v190,0,389,118,389,289v0,166,-186,285,-361,288r0,-188v0,-19,-9,-28,-28,-28v-19,0,-28,9,-28,28r0,188v-176,-4,-360,-121,-361,-288v-1,-171,200,-289,389,-289"},"R":{"d":"854,-77v18,14,43,-2,43,-23v0,-10,-4,-18,-12,-23r-224,-149v131,7,236,-103,236,-228v0,-123,-105,-228,-228,-228r-628,0r0,628v0,19,9,28,28,28v19,0,28,-9,28,-28r0,-172r464,0xm841,-500v0,92,-80,172,-172,172r-572,0r0,-344r572,0v92,-3,172,80,172,172"},"S":{"d":"43,-300v0,69,43,124,124,174v140,87,434,85,596,31v91,-31,136,-77,136,-138v0,-63,-39,-107,-116,-137v-94,-36,-498,-75,-596,-110v-58,-21,-88,-49,-88,-87v0,-36,35,-65,104,-88v141,-45,401,-50,529,22v72,40,111,82,111,133v0,19,9,28,28,28v19,0,28,-9,28,-28v0,-69,-43,-124,-124,-174v-140,-87,-433,-81,-596,-31v-175,53,-180,217,-15,276v86,31,503,77,597,110v54,19,82,47,82,86v0,36,-35,65,-104,88v-141,45,-401,50,-529,-22v-72,-40,-111,-82,-111,-133v0,-19,-9,-28,-28,-28v-19,0,-28,9,-28,28"},"T":{"d":"849,-728r-800,0v-19,0,-28,9,-28,28v0,19,9,28,28,28r372,0r0,572v0,19,9,28,28,28v19,0,28,-9,28,-28r0,-572r372,0v19,0,28,-9,28,-28v0,-19,-9,-28,-28,-28","w":896},"U":{"d":"483,-106v-182,0,-373,-51,-372,-200r0,-388v0,-19,-9,-28,-28,-28v-19,0,-28,9,-28,28r0,388v1,187,208,256,428,256v222,0,428,-68,428,-256r0,-388v0,-19,-9,-28,-28,-28v-19,0,-28,9,-28,28r0,388v2,149,-191,200,-372,200","w":958},"V":{"d":"880,-695v4,-31,-38,-36,-52,-15r-376,565r-377,-565v-12,-22,-56,-16,-52,16v0,5,2,10,5,15r424,635r423,-635v3,-5,5,-10,5,-16","w":904},"W":{"d":"1204,-683v16,-36,-38,-53,-51,-23r-243,546r-298,-597r-299,597r-243,-546v-8,-25,-56,-21,-52,11v0,4,1,8,2,12r290,654r302,-603r301,603","w":1219},"X":{"d":"869,-117r-371,-277r371,-278v20,-14,12,-54,-18,-50v-6,0,-11,2,-16,5r-383,288r-383,-288v-12,-9,-31,-6,-39,6v-11,15,-10,28,5,39r371,278r-371,277v-20,14,-12,54,18,50v6,0,11,-2,16,-5r383,-288r383,288v19,12,45,2,45,-23v0,-9,-4,-17,-11,-22","w":902},"Y":{"d":"872,-675v28,-29,-16,-63,-39,-39r-381,380r-380,-380v-16,-16,-51,-8,-47,20v0,7,3,14,8,19r391,392r0,189v0,18,9,27,28,27v19,0,28,-9,28,-27r0,-189","w":902},"Z":{"d":"900,-122r-716,0r800,-600r-884,0v-18,0,-27,9,-27,28v0,18,9,27,27,27r717,0r-800,600r883,0v19,0,28,-9,28,-27v0,-19,-9,-28,-28,-28","w":997},"a":{"d":"1097,-118r-538,-625r-521,625v-14,18,-4,46,23,46v8,0,15,-3,20,-10r158,-190r652,0r164,190v15,18,52,12,49,-17v0,-7,-2,-14,-7,-19xm286,-328r274,-329r284,329r-558,0","w":1142},"b":{"d":"724,-72v95,3,177,-83,177,-178v0,-65,-28,-115,-83,-150v55,-35,83,-85,83,-150v0,-95,-82,-178,-177,-178r-678,0r0,656r678,0xm845,-550v0,65,-56,122,-121,122r-623,0r0,-244r623,0v65,-2,121,57,121,122xm845,-250v0,65,-56,122,-121,122r-623,0r0,-244r623,0v65,-2,121,57,121,122","w":933},"c":{"d":"91,-400v0,-232,340,-356,575,-254v57,25,104,57,141,98v24,26,66,-9,41,-37v-76,-87,-212,-148,-368,-151v-221,-4,-446,142,-445,344v1,271,378,423,654,304v65,-28,117,-65,159,-111v19,-21,1,-46,-21,-46v-8,0,-15,3,-20,9v-67,77,-188,130,-327,133v-190,4,-389,-118,-389,-289","w":904},"d":{"d":"898,-400v0,-187,-135,-328,-328,-328r-528,0r0,656r528,0v193,-5,328,-141,328,-328xm842,-400v0,154,-109,272,-272,272r-472,0r0,-544r472,0v164,3,272,118,272,272","w":930},"e":{"d":"864,-372v19,0,28,-9,28,-28v0,-19,-9,-28,-28,-28r-772,0r0,-244r772,0v19,0,28,-9,28,-28v0,-19,-9,-28,-28,-28r-828,0r0,656r828,0v19,0,28,-9,28,-28v0,-19,-9,-28,-28,-28r-772,0r0,-244r772,0","w":930},"f":{"d":"873,-428r-772,0r0,-244r772,0v19,0,28,-9,28,-28v0,-19,-9,-28,-28,-28r-828,0r0,628v0,19,9,28,28,28v19,0,28,-9,28,-28r0,-272r772,0v19,0,28,-9,28,-28v0,-19,-9,-28,-28,-28","w":930},"g":{"d":"37,-394v0,202,224,344,445,344v127,0,235,-36,322,-107v3,36,-14,92,28,90v18,0,27,-9,27,-27r0,-228r-377,0v-19,0,-28,9,-28,28v0,18,9,27,28,27r322,0r0,34v-67,75,-186,124,-322,127v-190,4,-389,-117,-389,-288v0,-233,339,-355,575,-254v57,24,105,55,140,97v15,18,53,11,49,-18v0,-7,-2,-13,-7,-18v-76,-88,-211,-149,-368,-152v-220,-4,-445,143,-445,345","w":907},"h":{"d":"865,-717v-19,0,-28,9,-28,28r0,272r-744,0r0,-272v0,-19,-9,-28,-28,-28v-19,0,-28,9,-28,28r0,600v0,19,9,28,28,28v19,0,28,-9,28,-28r0,-272r744,0r0,272v0,19,9,28,28,28v19,0,28,-9,28,-28r0,-600v0,-19,-9,-28,-28,-28","w":922},"i":{"d":"46,-694r0,600v0,18,9,27,27,27v19,0,28,-9,28,-27r0,-600v0,-19,-9,-28,-28,-28v-18,0,-27,9,-27,28","w":149},"j":{"d":"461,-106v-182,0,-373,-51,-372,-200v0,-18,-9,-27,-28,-27v-18,0,-27,9,-27,27v1,187,207,256,427,256v222,0,428,-68,428,-256r0,-388v0,-19,-9,-28,-28,-28v-18,0,-27,9,-27,28r0,388v2,149,-192,200,-373,200","w":922},"k":{"d":"884,-114r-373,-373r366,-183v20,-7,20,-39,2,-48v-9,-5,-18,-6,-27,-1r-760,380r0,-355v0,-19,-9,-28,-28,-28v-19,0,-28,9,-28,28r0,600v0,18,9,27,28,27v19,0,28,-9,28,-27r0,-183r367,-184r385,386v16,16,52,8,48,-20v0,-7,-3,-14,-8,-19","w":922},"l":{"d":"876,-122r-772,0r0,-572v0,-19,-9,-28,-28,-28v-19,0,-28,9,-28,28r0,627r828,0v19,0,28,-9,28,-27v0,-19,-9,-28,-28,-28","w":934},"m":{"d":"455,-145r-428,-641r0,692v0,18,9,27,28,27v18,0,27,-9,27,-27r0,-509r373,559r372,-559r0,509v0,18,9,27,28,27v18,0,27,-9,27,-27r0,-692","w":910},"n":{"d":"859,-722v-19,0,-28,9,-28,28r0,544r-800,-600r0,656v0,18,9,27,28,27v19,0,28,-9,28,-27r0,-545r800,600r0,-655v0,-19,-9,-28,-28,-28","w":922},"o":{"d":"917,-394v0,-200,-226,-345,-444,-345v-220,0,-445,143,-445,345v0,202,224,344,445,344v222,0,444,-143,444,-344xm473,-683v190,0,389,117,389,289v0,171,-200,288,-389,288v-190,0,-388,-117,-389,-288v0,-172,200,-289,389,-289"},"p":{"d":"897,-500v0,-123,-105,-228,-228,-228r-628,0r0,628v0,19,9,28,28,28v19,0,28,-9,28,-28r0,-172r572,0v123,4,228,-106,228,-228xm841,-500v0,92,-80,172,-172,172r-572,0r0,-344r572,0v92,-3,172,80,172,172"},"q":{"d":"914,-400v0,-202,-224,-344,-445,-344v-221,0,-444,142,-444,344v0,196,212,340,416,344r0,133v0,18,9,27,28,27v19,0,28,-9,28,-27r0,-133v207,-4,417,-149,417,-344xm469,-689v190,0,389,118,389,289v0,166,-186,285,-361,288r0,-188v0,-19,-9,-28,-28,-28v-19,0,-28,9,-28,28r0,188v-176,-4,-360,-121,-361,-288v-1,-171,200,-289,389,-289"},"r":{"d":"854,-77v18,14,43,-2,43,-23v0,-10,-4,-18,-12,-23r-224,-149v131,7,236,-103,236,-228v0,-123,-105,-228,-228,-228r-628,0r0,628v0,19,9,28,28,28v19,0,28,-9,28,-28r0,-172r464,0xm841,-500v0,92,-80,172,-172,172r-572,0r0,-344r572,0v92,-3,172,80,172,172"},"s":{"d":"43,-300v0,69,43,124,124,174v140,87,434,85,596,31v91,-31,136,-77,136,-138v0,-63,-39,-107,-116,-137v-94,-36,-498,-75,-596,-110v-58,-21,-88,-49,-88,-87v0,-36,35,-65,104,-88v141,-45,401,-50,529,22v72,40,111,82,111,133v0,19,9,28,28,28v19,0,28,-9,28,-28v0,-69,-43,-124,-124,-174v-140,-87,-433,-81,-596,-31v-175,53,-180,217,-15,276v86,31,503,77,597,110v54,19,82,47,82,86v0,36,-35,65,-104,88v-141,45,-401,50,-529,-22v-72,-40,-111,-82,-111,-133v0,-19,-9,-28,-28,-28v-19,0,-28,9,-28,28"},"t":{"d":"849,-728r-800,0v-19,0,-28,9,-28,28v0,19,9,28,28,28r372,0r0,572v0,19,9,28,28,28v19,0,28,-9,28,-28r0,-572r372,0v19,0,28,-9,28,-28v0,-19,-9,-28,-28,-28","w":896},"u":{"d":"483,-106v-182,0,-373,-51,-372,-200r0,-388v0,-19,-9,-28,-28,-28v-19,0,-28,9,-28,28r0,388v1,187,208,256,428,256v222,0,428,-68,428,-256r0,-388v0,-19,-9,-28,-28,-28v-19,0,-28,9,-28,28r0,388v2,149,-191,200,-372,200","w":958},"v":{"d":"880,-695v4,-31,-38,-36,-52,-15r-376,565r-377,-565v-12,-22,-56,-16,-52,16v0,5,2,10,5,15r424,635r423,-635v3,-5,5,-10,5,-16","w":904},"w":{"d":"1204,-683v16,-36,-38,-53,-51,-23r-243,546r-298,-597r-299,597r-243,-546v-8,-25,-56,-21,-52,11v0,4,1,8,2,12r290,654r302,-603r301,603","w":1219},"x":{"d":"869,-117r-371,-277r371,-278v20,-14,12,-54,-18,-50v-6,0,-11,2,-16,5r-383,288r-383,-288v-12,-9,-31,-6,-39,6v-11,15,-10,28,5,39r371,278r-371,277v-20,14,-12,54,18,50v6,0,11,-2,16,-5r383,-288r383,288v19,12,45,2,45,-23v0,-9,-4,-17,-11,-22","w":902},"y":{"d":"872,-675v28,-29,-16,-63,-39,-39r-381,380r-380,-380v-16,-16,-51,-8,-47,20v0,7,3,14,8,19r391,392r0,189v0,18,9,27,28,27v19,0,28,-9,28,-27r0,-189","w":902},"z":{"d":"900,-122r-716,0r800,-600r-884,0v-18,0,-27,9,-27,28v0,18,9,27,27,27r717,0r-800,600r883,0v19,0,28,-9,28,-27v0,-19,-9,-28,-28,-28","w":997},"\u00a0":{"w":273}}});
